digraph Tree {
node [shape=box] ;
0 [label="X[10] <= 29.5\nentropy = 0.533\nsamples = 561\nvalue = [493, 68]"] ;
1 [label="X[8] <= 0.5\nentropy = 0.306\nsamples = 347\nvalue = [328, 19]"] ;
0 -> 1 [labeldistance=2.5, labelangle=45, headlabel="True"] ;
2 [label="X[10] <= 18.5\nentropy = 0.201\nsamples = 256\nvalue = [248, 8]"] ;
1 -> 2 ;
3 [label="X[6] <= 0.5\nentropy = 0.544\nsamples = 32\nvalue = [28, 4]"] ;
2 -> 3 ;
4 [label="X[9] <= 0.5\nentropy = 0.667\nsamples = 23\nvalue = [19, 4]"] ;
3 -> 4 ;
5 [label="X[3] <= 0.5\nentropy = 0.371\nsamples = 14\nvalue = [13, 1]"] ;
4 -> 5 ;
6 [label="entropy = 0.0\nsamples = 9\nvalue = [9, 0]"] ;
5 -> 6 ;
7 [label="X[11] <= 0.5\nentropy = 0.722\nsamples = 5\nvalue = [4, 1]"] ;
5 -> 7 ;
8 [label="entropy = 0.0\nsamples = 2\nvalue = [2, 0]"] ;
7 -> 8 ;
9 [label="X[2] <= 0.5\nentropy = 0.918\nsamples = 3\nvalue = [2, 1]"] ;
7 -> 9 ;
10 [label="entropy = 0.0\nsamples = 1\nvalue = [0, 1]"] ;
9 -> 10 ;
11 [label="entropy = 0.0\nsamples = 2\nvalue = [2, 0]"] ;
9 -> 11 ;
12 [label="X[2] <= 0.5\nentropy = 0.918\nsamples = 9\nvalue = [6, 3]"] ;
4 -> 12 ;
13 [label="X[10] <= 17.5\nentropy = 0.918\nsamples = 3\nvalue = [1, 2]"] ;
12 -> 13 ;
14 [label="entropy = 0.0\nsamples = 1\nvalue = [1, 0]"] ;
13 -> 14 ;
15 [label="entropy = 0.0\nsamples = 2\nvalue = [0, 2]"] ;
13 -> 15 ;
16 [label="X[10] <= 17.5\nentropy = 0.65\nsamples = 6\nvalue = [5, 1]"] ;
12 -> 16 ;
17 [label="X[4] <= 0.5\nentropy = 1.0\nsamples = 2\nvalue = [1, 1]"] ;
16 -> 17 ;
18 [label="entropy = 0.0\nsamples = 1\nvalue = [0, 1]"] ;
17 -> 18 ;
19 [label="entropy = 0.0\nsamples = 1\nvalue = [1, 0]"] ;
17 -> 19 ;
20 [label="entropy = 0.0\nsamples = 4\nvalue = [4, 0]"] ;
16 -> 20 ;
21 [label="entropy = 0.0\nsamples = 9\nvalue = [9, 0]"] ;
3 -> 21 ;
22 [label="X[9] <= 0.5\nentropy = 0.129\nsamples = 224\nvalue = [220, 4]"] ;
2 -> 22 ;
23 [label="entropy = 0.0\nsamples = 120\nvalue = [120, 0]"] ;
22 -> 23 ;
24 [label="X[10] <= 20.5\nentropy = 0.235\nsamples = 104\nvalue = [100, 4]"] ;
22 -> 24 ;
25 [label="entropy = 0.0\nsamples = 24\nvalue = [24, 0]"] ;
24 -> 25 ;
26 [label="X[10] <= 21.5\nentropy = 0.286\nsamples = 80\nvalue = [76, 4]"] ;
24 -> 26 ;
27 [label="X[5] <= 0.5\nentropy = 0.684\nsamples = 11\nvalue = [9, 2]"] ;
26 -> 27 ;
28 [label="entropy = 0.0\nsamples = 8\nvalue = [8, 0]"] ;
27 -> 28 ;
29 [label="X[3] <= 0.5\nentropy = 0.918\nsamples = 3\nvalue = [1, 2]"] ;
27 -> 29 ;
30 [label="entropy = 0.0\nsamples = 1\nvalue = [1, 0]"] ;
29 -> 30 ;
31 [label="entropy = 0.0\nsamples = 2\nvalue = [0, 2]"] ;
29 -> 31 ;
32 [label="X[10] <= 26.5\nentropy = 0.189\nsamples = 69\nvalue = [67, 2]"] ;
26 -> 32 ;
33 [label="entropy = 0.0\nsamples = 42\nvalue = [42, 0]"] ;
32 -> 33 ;
34 [label="X[10] <= 28.5\nentropy = 0.381\nsamples = 27\nvalue = [25, 2]"] ;
32 -> 34 ;
35 [label="X[5] <= 0.5\nentropy = 0.503\nsamples = 18\nvalue = [16, 2]"] ;
34 -> 35 ;
36 [label="X[0] <= 0.5\nentropy = 0.592\nsamples = 14\nvalue = [12, 2]"] ;
35 -> 36 ;
37 [label="entropy = 0.811\nsamples = 4\nvalue = [3, 1]"] ;
36 -> 37 ;
38 [label="entropy = 0.469\nsamples = 10\nvalue = [9, 1]"] ;
36 -> 38 ;
39 [label="entropy = 0.0\nsamples = 4\nvalue = [4, 0]"] ;
35 -> 39 ;
40 [label="entropy = 0.0\nsamples = 9\nvalue = [9, 0]"] ;
34 -> 40 ;
41 [label="X[0] <= 0.5\nentropy = 0.532\nsamples = 91\nvalue = [80, 11]"] ;
1 -> 41 ;
42 [label="entropy = 0.0\nsamples = 16\nvalue = [16, 0]"] ;
41 -> 42 ;
43 [label="X[10] <= 27.5\nentropy = 0.601\nsamples = 75\nvalue = [64, 11]"] ;
41 -> 43 ;
44 [label="X[10] <= 23.5\nentropy = 0.65\nsamples = 66\nvalue = [55, 11]"] ;
43 -> 44 ;
45 [label="X[10] <= 17.5\nentropy = 0.503\nsamples = 45\nvalue = [40, 5]"] ;
44 -> 45 ;
46 [label="X[4] <= 0.5\nentropy = 0.971\nsamples = 5\nvalue = [3, 2]"] ;
45 -> 46 ;
47 [label="entropy = 0.0\nsamples = 2\nvalue = [0, 2]"] ;
46 -> 47 ;
48 [label="entropy = 0.0\nsamples = 3\nvalue = [3, 0]"] ;
46 -> 48 ;
49 [label="X[5] <= 0.5\nentropy = 0.384\nsamples = 40\nvalue = [37, 3]"] ;
45 -> 49 ;
50 [label="entropy = 0.0\nsamples = 15\nvalue = [15, 0]"] ;
49 -> 50 ;
51 [label="X[7] <= 0.5\nentropy = 0.529\nsamples = 25\nvalue = [22, 3]"] ;
49 -> 51 ;
52 [label="X[1] <= 0.5\nentropy = 0.918\nsamples = 6\nvalue = [4, 2]"] ;
51 -> 52 ;
53 [label="entropy = 0.0\nsamples = 1\nvalue = [0, 1]"] ;
52 -> 53 ;
54 [label="X[3] <= 0.5\nentropy = 0.722\nsamples = 5\nvalue = [4, 1]"] ;
52 -> 54 ;
55 [label="entropy = 1.0\nsamples = 2\nvalue = [1, 1]"] ;
54 -> 55 ;
56 [label="entropy = 0.0\nsamples = 3\nvalue = [3, 0]"] ;
54 -> 56 ;
57 [label="X[11] <= 0.5\nentropy = 0.297\nsamples = 19\nvalue = [18, 1]"] ;
51 -> 57 ;
58 [label="X[1] <= 0.5\nentropy = 0.439\nsamples = 11\nvalue = [10, 1]"] ;
57 -> 58 ;
59 [label="entropy = 0.0\nsamples = 5\nvalue = [5, 0]"] ;
58 -> 59 ;
60 [label="entropy = 0.65\nsamples = 6\nvalue = [5, 1]"] ;
58 -> 60 ;
61 [label="entropy = 0.0\nsamples = 8\nvalue = [8, 0]"] ;
57 -> 61 ;
62 [label="X[4] <= 0.5\nentropy = 0.863\nsamples = 21\nvalue = [15, 6]"] ;
44 -> 62 ;
63 [label="X[5] <= 0.5\nentropy = 0.592\nsamples = 7\nvalue = [6, 1]"] ;
62 -> 63 ;
64 [label="entropy = 0.0\nsamples = 5\nvalue = [5, 0]"] ;
63 -> 64 ;
65 [label="X[7] <= 0.5\nentropy = 1.0\nsamples = 2\nvalue = [1, 1]"] ;
63 -> 65 ;
66 [label="entropy = 0.0\nsamples = 1\nvalue = [0, 1]"] ;
65 -> 66 ;
67 [label="entropy = 0.0\nsamples = 1\nvalue = [1, 0]"] ;
65 -> 67 ;
68 [label="X[7] <= 0.5\nentropy = 0.94\nsamples = 14\nvalue = [9, 5]"] ;
62 -> 68 ;
69 [label="entropy = 0.0\nsamples = 3\nvalue = [3, 0]"] ;
68 -> 69 ;
70 [label="X[9] <= 0.5\nentropy = 0.994\nsamples = 11\nvalue = [6, 5]"] ;
68 -> 70 ;
71 [label="entropy = 0.0\nsamples = 2\nvalue = [2, 0]"] ;
70 -> 71 ;
72 [label="X[11] <= 0.5\nentropy = 0.991\nsamples = 9\nvalue = [4, 5]"] ;
70 -> 72 ;
73 [label="entropy = 0.0\nsamples = 2\nvalue = [0, 2]"] ;
72 -> 73 ;
74 [label="X[2] <= 0.5\nentropy = 0.985\nsamples = 7\nvalue = [4, 3]"] ;
72 -> 74 ;
75 [label="entropy = 0.0\nsamples = 1\nvalue = [1, 0]"] ;
74 -> 75 ;
76 [label="entropy = 1.0\nsamples = 6\nvalue = [3, 3]"] ;
74 -> 76 ;
77 [label="entropy = 0.0\nsamples = 9\nvalue = [9, 0]"] ;
43 -> 77 ;
78 [label="X[3] <= 0.5\nentropy = 0.776\nsamples = 214\nvalue = [165, 49]"] ;
0 -> 78 [labeldistance=2.5, labelangle=-45, headlabel="False"] ;
79 [label="X[0] <= 0.5\nentropy = 0.497\nsamples = 101\nvalue = [90, 11]"] ;
78 -> 79 ;
80 [label="X[7] <= 0.5\nentropy = 0.191\nsamples = 34\nvalue = [33, 1]"] ;
79 -> 80 ;
81 [label="entropy = 0.0\nsamples = 20\nvalue = [20, 0]"] ;
80 -> 81 ;
82 [label="X[10] <= 41.0\nentropy = 0.371\nsamples = 14\nvalue = [13, 1]"] ;
80 -> 82 ;
83 [label="X[10] <= 38.5\nentropy = 0.592\nsamples = 7\nvalue = [6, 1]"] ;
82 -> 83 ;
84 [label="entropy = 0.0\nsamples = 6\nvalue = [6, 0]"] ;
83 -> 84 ;
85 [label="entropy = 0.0\nsamples = 1\nvalue = [0, 1]"] ;
83 -> 85 ;
86 [label="entropy = 0.0\nsamples = 7\nvalue = [7, 0]"] ;
82 -> 86 ;
87 [label="X[11] <= 0.5\nentropy = 0.608\nsamples = 67\nvalue = [57, 10]"] ;
79 -> 87 ;
88 [label="X[10] <= 37.5\nentropy = 0.323\nsamples = 34\nvalue = [32, 2]"] ;
87 -> 88 ;
89 [label="entropy = 0.0\nsamples = 20\nvalue = [20, 0]"] ;
88 -> 89 ;
90 [label="X[10] <= 41.5\nentropy = 0.592\nsamples = 14\nvalue = [12, 2]"] ;
88 -> 90 ;
91 [label="X[4] <= 0.5\nentropy = 0.971\nsamples = 5\nvalue = [3, 2]"] ;
90 -> 91 ;
92 [label="X[10] <= 39.5\nentropy = 0.811\nsamples = 4\nvalue = [3, 1]"] ;
91 -> 92 ;
93 [label="entropy = 1.0\nsamples = 2\nvalue = [1, 1]"] ;
92 -> 93 ;
94 [label="entropy = 0.0\nsamples = 2\nvalue = [2, 0]"] ;
92 -> 94 ;
95 [label="entropy = 0.0\nsamples = 1\nvalue = [0, 1]"] ;
91 -> 95 ;
96 [label="entropy = 0.0\nsamples = 9\nvalue = [9, 0]"] ;
90 -> 96 ;
97 [label="X[10] <= 31.0\nentropy = 0.799\nsamples = 33\nvalue = [25, 8]"] ;
87 -> 97 ;
98 [label="X[7] <= 0.5\nentropy = 0.811\nsamples = 4\nvalue = [1, 3]"] ;
97 -> 98 ;
99 [label="entropy = 0.0\nsamples = 1\nvalue = [1, 0]"] ;
98 -> 99 ;
100 [label="entropy = 0.0\nsamples = 3\nvalue = [0, 3]"] ;
98 -> 100 ;
101 [label="X[6] <= 0.5\nentropy = 0.663\nsamples = 29\nvalue = [24, 5]"] ;
97 -> 101 ;
102 [label="X[10] <= 45.5\nentropy = 0.792\nsamples = 21\nvalue = [16, 5]"] ;
101 -> 102 ;
103 [label="X[4] <= 0.5\nentropy = 0.722\nsamples = 20\nvalue = [16, 4]"] ;
102 -> 103 ;
104 [label="X[10] <= 34.0\nentropy = 0.391\nsamples = 13\nvalue = [12, 1]"] ;
103 -> 104 ;
105 [label="X[7] <= 0.5\nentropy = 0.811\nsamples = 4\nvalue = [3, 1]"] ;
104 -> 105 ;
106 [label="entropy = 1.0\nsamples = 2\nvalue = [1, 1]"] ;
105 -> 106 ;
107 [label="entropy = 0.0\nsamples = 2\nvalue = [2, 0]"] ;
105 -> 107 ;
108 [label="entropy = 0.0\nsamples = 9\nvalue = [9, 0]"] ;
104 -> 108 ;
109 [label="X[1] <= 0.5\nentropy = 0.985\nsamples = 7\nvalue = [4, 3]"] ;
103 -> 109 ;
110 [label="entropy = 0.0\nsamples = 3\nvalue = [0, 3]"] ;
109 -> 110 ;
111 [label="entropy = 0.0\nsamples = 4\nvalue = [4, 0]"] ;
109 -> 111 ;
112 [label="entropy = 0.0\nsamples = 1\nvalue = [0, 1]"] ;
102 -> 112 ;
113 [label="entropy = 0.0\nsamples = 8\nvalue = [8, 0]"] ;
101 -> 113 ;
114 [label="X[11] <= 0.5\nentropy = 0.921\nsamples = 113\nvalue = [75, 38]"] ;
78 -> 114 ;
115 [label="X[2] <= 0.5\nentropy = 0.722\nsamples = 55\nvalue = [44, 11]"] ;
114 -> 115 ;
116 [label="X[6] <= 0.5\nentropy = 0.89\nsamples = 13\nvalue = [9, 4]"] ;
115 -> 116 ;
117 [label="X[9] <= 0.5\nentropy = 0.991\nsamples = 9\nvalue = [5, 4]"] ;
116 -> 117 ;
118 [label="entropy = 0.0\nsamples = 1\nvalue = [0, 1]"] ;
117 -> 118 ;
119 [label="X[8] <= 0.5\nentropy = 0.954\nsamples = 8\nvalue = [5, 3]"] ;
117 -> 119 ;
120 [label="X[0] <= 0.5\nentropy = 0.863\nsamples = 7\nvalue = [5, 2]"] ;
119 -> 120 ;
121 [label="entropy = 0.0\nsamples = 2\nvalue = [2, 0]"] ;
120 -> 121 ;
122 [label="X[5] <= 0.5\nentropy = 0.971\nsamples = 5\nvalue = [3, 2]"] ;
120 -> 122 ;
123 [label="X[10] <= 41.0\nentropy = 0.811\nsamples = 4\nvalue = [3, 1]"] ;
122 -> 123 ;
124 [label="entropy = 0.0\nsamples = 3\nvalue = [3, 0]"] ;
123 -> 124 ;
125 [label="entropy = 0.0\nsamples = 1\nvalue = [0, 1]"] ;
123 -> 125 ;
126 [label="entropy = 0.0\nsamples = 1\nvalue = [0, 1]"] ;
122 -> 126 ;
127 [label="entropy = 0.0\nsamples = 1\nvalue = [0, 1]"] ;
119 -> 127 ;
128 [label="entropy = 0.0\nsamples = 4\nvalue = [4, 0]"] ;
116 -> 128 ;
129 [label="X[10] <= 31.5\nentropy = 0.65\nsamples = 42\nvalue = [35, 7]"] ;
115 -> 129 ;
130 [label="entropy = 0.0\nsamples = 4\nvalue = [4, 0]"] ;
129 -> 130 ;
131 [label="X[10] <= 41.0\nentropy = 0.689\nsamples = 38\nvalue = [31, 7]"] ;
129 -> 131 ;
132 [label="X[10] <= 38.5\nentropy = 0.837\nsamples = 15\nvalue = [11, 4]"] ;
131 -> 132 ;
133 [label="X[5] <= 0.5\nentropy = 0.684\nsamples = 11\nvalue = [9, 2]"] ;
132 -> 133 ;
134 [label="X[6] <= 0.5\nentropy = 0.918\nsamples = 6\nvalue = [4, 2]"] ;
133 -> 134 ;
135 [label="entropy = 0.0\nsamples = 3\nvalue = [3, 0]"] ;
134 -> 135 ;
136 [label="X[10] <= 35.5\nentropy = 0.918\nsamples = 3\nvalue = [1, 2]"] ;
134 -> 136 ;
137 [label="entropy = 0.0\nsamples = 2\nvalue = [0, 2]"] ;
136 -> 137 ;
138 [label="entropy = 0.0\nsamples = 1\nvalue = [1, 0]"] ;
136 -> 138 ;
139 [label="entropy = 0.0\nsamples = 5\nvalue = [5, 0]"] ;
133 -> 139 ;
140 [label="X[10] <= 39.5\nentropy = 1.0\nsamples = 4\nvalue = [2, 2]"] ;
132 -> 140 ;
141 [label="entropy = 0.0\nsamples = 1\nvalue = [0, 1]"] ;
140 -> 141 ;
142 [label="X[5] <= 0.5\nentropy = 0.918\nsamples = 3\nvalue = [2, 1]"] ;
140 -> 142 ;
143 [label="entropy = 0.0\nsamples = 2\nvalue = [2, 0]"] ;
142 -> 143 ;
144 [label="entropy = 0.0\nsamples = 1\nvalue = [0, 1]"] ;
142 -> 144 ;
145 [label="X[5] <= 0.5\nentropy = 0.559\nsamples = 23\nvalue = [20, 3]"] ;
131 -> 145 ;
146 [label="entropy = 0.0\nsamples = 10\nvalue = [10, 0]"] ;
145 -> 146 ;
147 [label="X[10] <= 54.0\nentropy = 0.779\nsamples = 13\nvalue = [10, 3]"] ;
145 -> 147 ;
148 [label="X[10] <= 43.5\nentropy = 0.469\nsamples = 10\nvalue = [9, 1]"] ;
147 -> 148 ;
149 [label="entropy = 0.0\nsamples = 4\nvalue = [4, 0]"] ;
148 -> 149 ;
150 [label="X[10] <= 45.0\nentropy = 0.65\nsamples = 6\nvalue = [5, 1]"] ;
148 -> 150 ;
151 [label="entropy = 1.0\nsamples = 2\nvalue = [1, 1]"] ;
150 -> 151 ;
152 [label="entropy = 0.0\nsamples = 4\nvalue = [4, 0]"] ;
150 -> 152 ;
153 [label="X[7] <= 0.5\nentropy = 0.918\nsamples = 3\nvalue = [1, 2]"] ;
147 -> 153 ;
154 [label="entropy = 0.0\nsamples = 1\nvalue = [1, 0]"] ;
153 -> 154 ;
155 [label="entropy = 0.0\nsamples = 2\nvalue = [0, 2]"] ;
153 -> 155 ;
156 [label="X[10] <= 32.5\nentropy = 0.997\nsamples = 58\nvalue = [31, 27]"] ;
114 -> 156 ;
157 [label="X[2] <= 0.5\nentropy = 0.75\nsamples = 14\nvalue = [11, 3]"] ;
156 -> 157 ;
158 [label="entropy = 0.0\nsamples = 5\nvalue = [5, 0]"] ;
157 -> 158 ;
159 [label="X[4] <= 0.5\nentropy = 0.918\nsamples = 9\nvalue = [6, 3]"] ;
157 -> 159 ;
160 [label="entropy = 0.0\nsamples = 1\nvalue = [0, 1]"] ;
159 -> 160 ;
161 [label="X[10] <= 30.5\nentropy = 0.811\nsamples = 8\nvalue = [6, 2]"] ;
159 -> 161 ;
162 [label="X[5] <= 0.5\nentropy = 1.0\nsamples = 4\nvalue = [2, 2]"] ;
161 -> 162 ;
163 [label="entropy = 0.0\nsamples = 1\nvalue = [1, 0]"] ;
162 -> 163 ;
164 [label="X[0] <= 0.5\nentropy = 0.918\nsamples = 3\nvalue = [1, 2]"] ;
162 -> 164 ;
165 [label="entropy = 1.0\nsamples = 2\nvalue = [1, 1]"] ;
164 -> 165 ;
166 [label="entropy = 0.0\nsamples = 1\nvalue = [0, 1]"] ;
164 -> 166 ;
167 [label="entropy = 0.0\nsamples = 4\nvalue = [4, 0]"] ;
161 -> 167 ;
168 [label="X[10] <= 41.0\nentropy = 0.994\nsamples = 44\nvalue = [20, 24]"] ;
156 -> 168 ;
169 [label="X[0] <= 0.5\nentropy = 0.94\nsamples = 28\nvalue = [10, 18]"] ;
168 -> 169 ;
170 [label="entropy = 0.0\nsamples = 5\nvalue = [0, 5]"] ;
169 -> 170 ;
171 [label="X[2] <= 0.5\nentropy = 0.988\nsamples = 23\nvalue = [10, 13]"] ;
169 -> 171 ;
172 [label="X[6] <= 0.5\nentropy = 0.722\nsamples = 5\nvalue = [1, 4]"] ;
171 -> 172 ;
173 [label="X[10] <= 38.5\nentropy = 1.0\nsamples = 2\nvalue = [1, 1]"] ;
172 -> 173 ;
174 [label="entropy = 0.0\nsamples = 1\nvalue = [1, 0]"] ;
173 -> 174 ;
175 [label="entropy = 0.0\nsamples = 1\nvalue = [0, 1]"] ;
173 -> 175 ;
176 [label="entropy = 0.0\nsamples = 3\nvalue = [0, 3]"] ;
172 -> 176 ;
177 [label="X[9] <= 0.5\nentropy = 1.0\nsamples = 18\nvalue = [9, 9]"] ;
171 -> 177 ;
178 [label="entropy = 0.0\nsamples = 3\nvalue = [3, 0]"] ;
177 -> 178 ;
179 [label="X[1] <= 0.5\nentropy = 0.971\nsamples = 15\nvalue = [6, 9]"] ;
177 -> 179 ;
180 [label="X[10] <= 37.5\nentropy = 0.954\nsamples = 8\nvalue = [5, 3]"] ;
179 -> 180 ;
181 [label="entropy = 1.0\nsamples = 6\nvalue = [3, 3]"] ;
180 -> 181 ;
182 [label="entropy = 0.0\nsamples = 2\nvalue = [2, 0]"] ;
180 -> 182 ;
183 [label="X[6] <= 0.5\nentropy = 0.592\nsamples = 7\nvalue = [1, 6]"] ;
179 -> 183 ;
184 [label="entropy = 0.0\nsamples = 4\nvalue = [0, 4]"] ;
183 -> 184 ;
185 [label="entropy = 0.918\nsamples = 3\nvalue = [1, 2]"] ;
183 -> 185 ;
186 [label="X[10] <= 59.0\nentropy = 0.954\nsamples = 16\nvalue = [10, 6]"] ;
168 -> 186 ;
187 [label="X[5] <= 0.5\nentropy = 0.918\nsamples = 15\nvalue = [10, 5]"] ;
186 -> 187 ;
188 [label="X[4] <= 0.5\nentropy = 0.971\nsamples = 5\nvalue = [2, 3]"] ;
187 -> 188 ;
189 [label="X[10] <= 50.5\nentropy = 0.918\nsamples = 3\nvalue = [2, 1]"] ;
188 -> 189 ;
190 [label="entropy = 0.0\nsamples = 2\nvalue = [2, 0]"] ;
189 -> 190 ;
191 [label="entropy = 0.0\nsamples = 1\nvalue = [0, 1]"] ;
189 -> 191 ;
192 [label="entropy = 0.0\nsamples = 2\nvalue = [0, 2]"] ;
188 -> 192 ;
193 [label="X[10] <= 45.0\nentropy = 0.722\nsamples = 10\nvalue = [8, 2]"] ;
187 -> 193 ;
194 [label="entropy = 0.0\nsamples = 4\nvalue = [4, 0]"] ;
193 -> 194 ;
195 [label="X[1] <= 0.5\nentropy = 0.918\nsamples = 6\nvalue = [4, 2]"] ;
193 -> 195 ;
196 [label="entropy = 0.0\nsamples = 3\nvalue = [3, 0]"] ;
195 -> 196 ;
197 [label="X[9] <= 0.5\nentropy = 0.918\nsamples = 3\nvalue = [1, 2]"] ;
195 -> 197 ;
198 [label="entropy = 0.0\nsamples = 1\nvalue = [1, 0]"] ;
197 -> 198 ;
199 [label="entropy = 0.0\nsamples = 2\nvalue = [0, 2]"] ;
197 -> 199 ;
200 [label="entropy = 0.0\nsamples = 1\nvalue = [0, 1]"] ;
186 -> 200 ;
}